<?xml version="1.0"?>
<opencv_storage>
<my_svm type_id="opencv-ml-svm">
  <svm_type>C_SVC</svm_type>
  <kernel><type>LINEAR</type></kernel>
  <C>1.</C>
  <term_criteria><epsilon>2.2204460492503131e-16</epsilon>
    <iterations>10000</iterations></term_criteria>
  <var_all>3780</var_all>
  <var_count>3780</var_count>
  <class_count>2</class_count>
  <class_labels type_id="opencv-matrix">
    <rows>1</rows>
    <cols>2</cols>
    <dt>i</dt>
    <data>
      -1 1</data></class_labels>
  <sv_total>1</sv_total>
  <support_vectors>
    <_>
      -1.05331494e-02 -7.11981964e-04 8.26844107e-03 -1.01637626e-02
      5.66413887e-02 -3.19781224e-03 -4.72761579e-02 -5.25961407e-02
      1.67108253e-02 -2.53530741e-02 -1.63398962e-02 -1.42688695e-02
      -7.70875299e-03 5.43449707e-02 2.72161774e-02 -2.50024330e-02
      -7.15349838e-02 1.57718733e-03 -2.83256453e-02 -1.02923959e-02
      1.52439028e-02 1.82719212e-02 8.38272721e-02 1.05128875e-02
      -3.09258420e-02 -3.71541046e-02 -1.74632575e-02 1.67357754e-02
      -7.81153049e-03 2.08020788e-02 -8.69514886e-03 7.85598755e-02
      1.24508971e-02 -3.13129723e-02 -6.88211843e-02 -2.10174564e-02
      -2.19519790e-02 -2.77207233e-02 -1.90057289e-02 -1.24194929e-02
      8.17783102e-02 6.73763826e-02 -5.01261838e-03 -5.82888313e-02
      -3.43242697e-02 -2.48194598e-02 1.43436051e-03 2.84261052e-02
      -2.47037653e-02 1.73371937e-02 2.07405314e-02 2.52838004e-02
      -4.71992716e-02 -3.39653641e-02 -1.19850989e-02 -7.41708511e-03
      1.26291160e-02 -8.96258838e-03 8.99133384e-02 5.80084138e-02
      2.06856951e-02 -5.08241504e-02 -5.76922260e-02 -2.70454176e-02
      4.17307205e-02 4.67566624e-02 2.98073329e-03 2.80143078e-02
      6.80359378e-02 4.19163704e-02 -3.54656391e-02 -5.03848419e-02
      6.87657436e-03 -1.58474129e-02 -1.12959081e-02 -7.29170442e-03
      -4.46219444e-02 -1.20275561e-03 3.35753560e-02 1.23749766e-02
      2.65361853e-02 -6.18310086e-03 -5.05079478e-02 1.07801016e-02
      3.18380259e-02 -1.88105050e-02 3.29680904e-03 2.14620866e-02
      8.65387358e-03 6.60347566e-02 7.83605967e-03 2.70131025e-02
      5.69354370e-02 8.01116787e-03 -2.51859110e-02 -1.89427212e-02
      1.28889307e-02 2.18758881e-02 5.02389856e-03 9.15165152e-03
      -2.21043918e-02 2.72364356e-02 5.07132672e-02 -1.19663877e-02
      -1.52082685e-02 8.45729155e-05 2.81423144e-02 -8.77657731e-04
      -5.85331731e-02 -5.30029200e-02 8.19958467e-03 5.39287329e-02
      1.31960874e-02 1.00714751e-02 1.11174006e-02 2.82345489e-02
      4.32646014e-02 -6.86256662e-02 -3.82933840e-02 9.97833069e-03
      1.66371390e-02 1.12226848e-02 3.74483392e-02 3.05742472e-02
      4.33586240e-02 4.45889831e-02 -7.37267360e-02 -5.27935699e-02
      2.63132602e-02 4.74215671e-02 2.47049350e-02 2.58696638e-03
      1.43999625e-02 2.58932002e-02 2.41618045e-03 -1.10052414e-01
      -3.98666002e-02 -1.44770695e-02 3.19908536e-03 2.72131898e-02
      4.54507582e-02 5.49333654e-02 1.69605557e-02 -2.84376703e-02
      -3.87375578e-02 -1.34063317e-02 9.90447495e-03 -1.96682084e-02
      -1.23405652e-02 2.51089968e-02 2.81472597e-02 4.63163480e-02
      3.14215273e-02 -1.68603249e-02 2.87874751e-02 5.02498858e-02
      1.85682364e-02 8.14397726e-03 2.64699552e-02 -1.76398735e-02
      1.47468988e-02 2.68389564e-02 -8.18361491e-02 -2.62076277e-02
      5.18112956e-03 1.42609626e-02 2.14459579e-02 3.15687843e-02
      3.02271955e-02 1.21940728e-02 -2.31687562e-03 -6.26912564e-02
      -8.28265026e-03 4.66085970e-02 5.36553450e-02 1.64319724e-02
      1.86322033e-02 -2.39006267e-03 5.51828891e-02 -1.87601745e-02
      1.03306081e-02 8.42075050e-03 9.33920313e-03 -6.14711456e-03
      -1.95599347e-02 4.75958036e-03 -2.73565501e-02 2.37367079e-02
      4.77266200e-02 -1.52789252e-02 5.14530018e-03 -2.05868073e-02
      -4.40890491e-02 -5.71149774e-02 -1.41743280e-04 -1.47105167e-02
      3.79522070e-02 4.32860479e-02 -2.92914566e-02 -1.88211072e-03
      1.32595645e-02 2.00812127e-02 -1.22931292e-02 1.17563596e-02
      7.33905751e-03 3.86070870e-02 1.22049283e-02 -3.33459415e-02
      -7.68787973e-03 -1.31990658e-02 -4.07401919e-02 -1.59903560e-02
      5.10207051e-03 3.28590460e-02 7.66911432e-02 1.29078850e-02
      -1.91434789e-02 -6.67617610e-03 -3.15442048e-02 -9.39783733e-03
      2.30893809e-02 3.87497945e-03 -2.70523448e-02 1.75312962e-02
      -2.15874892e-02 -3.60170119e-02 -2.25908160e-02 1.58658586e-04
      -7.27063883e-03 4.33681421e-02 5.21647558e-03 -1.77568197e-02
      -4.39111143e-03 -2.17604004e-02 -2.69231964e-02 -2.77814921e-02
      -2.53066160e-02 -5.83580788e-03 -5.54528786e-03 2.69430336e-02
      3.68388258e-02 4.51935418e-02 -2.92074028e-02 -1.59679074e-02
      -2.73359288e-02 -9.44799744e-03 5.62176108e-03 3.21314521e-02
      8.21298636e-06 4.57862765e-03 1.81065511e-03 5.66332927e-03
      -7.19051957e-02 -1.65069867e-02 2.32964102e-02 5.66978306e-02
      7.58086592e-02 2.66585145e-02 2.55532321e-02 -1.25733642e-02
      -6.31720722e-02 -9.75386519e-03 7.85574521e-05 2.95978338e-02
      -1.30128618e-02 2.20579393e-02 2.61555333e-03 1.64292846e-02
      -3.24807223e-03 1.26650091e-04 -4.21649627e-02 -5.12025028e-04
      2.70942058e-02 6.93262890e-02 4.36954461e-02 -1.89639640e-03
      4.38295305e-02 4.09895973e-03 -8.24451670e-02 -1.22652762e-02
      3.26958224e-02 6.08550422e-02 1.13950688e-02 3.02877221e-02
      -2.19648089e-02 1.94378104e-02 2.01317985e-02 -1.41218798e-02
      -2.68774983e-02 1.44044301e-02 2.75969394e-02 -3.51269133e-02
      1.22993253e-02 -1.52300522e-02 1.50625443e-03 -1.47804962e-02
      -1.32416273e-04 -4.12250832e-02 1.49213476e-02 4.76542264e-02
      1.24839954e-02 1.36237722e-02 2.81562861e-02 1.60248689e-02
      1.74547508e-02 -3.86511125e-02 -5.04932739e-03 -6.21771906e-03
      2.41637509e-02 -3.04598864e-02 -8.91981740e-03 -4.29374427e-02
      -1.99564341e-02 3.42225693e-02 2.99398061e-02 -3.81535143e-02
      -7.62927532e-02 -2.98001105e-03 2.14548782e-02 6.74510933e-03
      1.87742226e-02 -5.16607426e-03 9.18220263e-03 3.03104110e-02
      -1.32890539e-02 5.76643972e-03 3.62060368e-02 2.30681654e-02
      9.65668820e-03 -1.73877664e-02 1.80688296e-02 4.36791852e-02
      -2.77634570e-03 4.36810637e-03 -1.13544213e-02 1.42251104e-02
      3.18951830e-02 1.75989587e-02 -2.59254668e-02 7.53446156e-03
      4.71451469e-02 -1.87928579e-03 5.80396620e-04 -5.67823723e-02
      -9.59764887e-03 3.96292768e-02 1.04275160e-02 -2.12337580e-02
      -9.14120581e-03 -2.61069033e-02 3.27937119e-02 -2.48174975e-03
      -5.37027530e-02 -2.81018745e-02 5.73590957e-03 1.71931852e-02
      -1.67181492e-02 -6.84306631e-03 -1.45323332e-02 2.64926325e-03
      -4.33497643e-03 -1.67355388e-02 -1.35565724e-03 1.78740844e-02
      3.59435789e-02 1.85073109e-03 3.54725569e-02 2.25497112e-02
      2.58466788e-02 -3.86518277e-02 3.47890407e-02 -9.64075606e-03
      -1.70103984e-03 1.61992237e-02 2.87688356e-02 4.62585278e-02
      1.38527909e-02 -2.40902230e-02 -2.87221395e-03 -4.90746014e-02
      -3.04878186e-02 2.63399687e-02 1.18377097e-02 -4.98914067e-03
      -1.15994588e-02 -1.11352634e-02 -4.30886894e-02 5.66229504e-03
      -3.16268910e-04 -3.40544828e-03 7.26285623e-03 1.90727890e-03
      -2.26703156e-02 -1.16265612e-02 1.71809201e-03 -5.96052930e-02
      -2.76354942e-02 3.94962542e-02 2.09700577e-02 1.37071712e-02
      2.58278213e-02 2.64581293e-02 1.01247635e-02 3.80667113e-02
      -3.81197818e-02 -7.53185526e-03 5.38504403e-03 2.18464099e-02
      6.12145662e-02 5.77528775e-02 3.02711874e-02 2.21165512e-02
      5.03462702e-02 -1.27598513e-02 2.36581713e-02 1.98465195e-02
      1.97874699e-02 7.92616699e-03 -4.68658376e-03 -3.93416546e-02
      -2.48005539e-02 -3.24841477e-02 -3.56519483e-02 3.57359163e-02
      -9.65069607e-03 3.54167982e-03 5.68252727e-02 2.64223516e-02
      -2.41386518e-02 -1.80568956e-02 -2.49615721e-02 -7.89867714e-04
      -2.30467319e-02 -1.92954279e-02 -6.43749861e-03 6.58749640e-02
      1.95018630e-02 7.57703325e-03 3.15037444e-02 5.77397570e-02
      1.44211017e-02 2.24979427e-02 2.27868762e-02 -1.78555418e-02
      2.46216767e-02 -4.53820750e-02 -6.07786188e-03 2.71539651e-02
      4.07181419e-02 4.67597134e-03 -1.56294666e-02 -4.50647213e-02
      -3.12627740e-02 7.07229674e-02 1.75088681e-02 -3.07872891e-02
      -3.35886627e-02 -2.74690185e-02 -2.11034287e-02 1.53708495e-02
      -9.68340598e-03 -2.91420911e-02 4.91037965e-02 -1.84851103e-02
      -4.23340797e-02 8.93722661e-03 4.45502438e-03 1.25271995e-02
      -1.02635361e-02 -1.91811509e-02 -1.86756030e-02 3.05761676e-02
      -4.31993864e-02 2.36427393e-02 3.18499394e-02 -4.98269917e-03
      -3.75297517e-02 5.18114958e-03 -1.78642403e-02 1.46546550e-02
      3.22501957e-02 5.80821931e-02 1.55519303e-02 1.25040654e-02
      -1.11179883e-02 -1.90218724e-02 -4.60572401e-03 -1.45337647e-02
      -3.13116126e-02 2.77344882e-02 -2.74638198e-02 3.01179639e-03
      4.44074459e-02 1.80748664e-02 -1.03107989e-02 -3.41986418e-02
      4.92957595e-04 2.30992492e-02 4.73641716e-02 6.69938549e-02
      7.62992725e-02 3.04616988e-02 -2.29458865e-02 -3.67325656e-02
      -2.46983895e-04 -7.88948778e-03 3.86463366e-02 5.30714840e-02
      5.41479606e-03 -1.97360907e-02 2.73805521e-02 3.65546942e-02
      -6.87980864e-05 1.99074466e-02 4.48138900e-02 5.94377741e-02
      -2.58737104e-03 -1.37939090e-02 -5.39037772e-02 -1.12951230e-02
      2.17873659e-02 1.39526110e-02 -2.85634529e-02 -8.00483860e-03
      2.84895990e-02 1.85278133e-02 9.52946674e-03 -9.28086601e-03
      3.14748101e-02 4.52145003e-02 1.14494693e-02 1.92698110e-02
      3.97417024e-02 2.80863568e-02 -2.19908785e-02 -5.14938608e-02
      -8.09246674e-02 4.24799137e-03 1.67235751e-02 3.28920260e-02
      1.02141816e-02 2.81164739e-02 3.97552326e-02 -8.75384361e-03
      -1.02737062e-02 -3.26238311e-04 1.91494334e-03 3.33841182e-02
      2.04775799e-02 -3.42110880e-02 -5.84867559e-02 -2.36651301e-02
      2.86950823e-02 3.39233913e-02 3.97677943e-02 1.15692774e-02
      3.29947136e-02 1.70903560e-02 3.11437231e-02 4.26570326e-02
      1.39488345e-02 -3.02810799e-02 -9.84457955e-02 -5.18817753e-02
      3.48224677e-03 2.05675475e-02 4.74561146e-03 -1.73161440e-02
      1.43605168e-04 -2.61883549e-02 -3.03207245e-03 -3.76213007e-02
      -1.77576281e-02 2.32428722e-02 2.67092884e-02 -3.25288251e-03
      1.06495386e-02 -3.45492661e-02 -1.30781038e-02 3.88247371e-02
      7.22559094e-02 2.40357127e-02 7.12330081e-03 5.01635019e-03
      2.86527537e-02 9.16584954e-03 -1.93278249e-02 -2.22094581e-02
      1.20355850e-02 4.31201495e-02 9.85764712e-03 2.36779936e-02
      -1.14263790e-02 -3.05848867e-02 -4.71199572e-04 -4.96769734e-02
      -3.78831327e-02 -4.95755253e-03 3.08080856e-02 2.45330520e-02
      5.05341142e-02 3.32689397e-02 -1.47375567e-02 3.02561279e-03
      -5.32246269e-02 -2.79159416e-02 -1.37005020e-02 8.63487367e-03
      -1.35651706e-02 1.90582545e-03 -1.81446522e-02 -2.60236505e-02
      4.69277725e-02 -1.38417399e-03 -9.78048611e-03 2.91791353e-02
      4.72428091e-02 1.75663866e-02 1.60072427e-02 -3.20752361e-03
      -2.98174657e-02 2.89765634e-02 -1.85837019e-02 -3.71066085e-03
      3.83839384e-02 6.35490865e-02 1.37883972e-03 1.09897973e-02
      2.20712181e-03 -3.88223715e-02 1.19028809e-02 -2.76262872e-02
      -3.53197865e-02 -3.62148322e-02 -2.98239775e-02 -5.73677048e-02
      -2.67802160e-02 -4.18153629e-02 -3.08424309e-02 -3.10547855e-02
      -2.79911682e-02 -1.81265902e-02 -9.20572318e-03 4.62870747e-02
      -1.87064297e-02 -1.44180339e-02 -2.59675756e-02 -5.79580478e-02
      6.04481809e-02 2.87924870e-03 1.60886403e-02 2.77980957e-02
      1.41128413e-02 -4.36065942e-02 1.54754729e-03 9.18943528e-03
      1.76249503e-03 1.05266586e-01 2.60715242e-02 2.61438321e-02
      5.76210395e-02 -2.57130638e-02 -3.07052713e-02 9.76971630e-03
      1.39960246e-02 4.68468107e-02 -3.40428986e-02 -3.36429253e-02
      -1.36364633e-02 5.00417091e-02 6.08146638e-02 -9.16801300e-03
      2.61249766e-02 -1.70186404e-02 -6.16774485e-02 4.06781435e-02
      5.49403094e-02 6.45926893e-02 6.84681162e-02 1.02982838e-02
      -3.41466181e-02 -7.31742335e-03 -1.25986068e-02 -5.93788968e-03
      2.26980988e-02 -2.87684593e-02 -1.18346506e-04 9.66405794e-02
      2.73503102e-02 -5.75515516e-02 -2.37826444e-02 4.07336466e-03
      -4.69123712e-03 1.84285138e-02 5.70532121e-03 9.58951004e-03
      1.01536915e-01 3.14774050e-04 -3.40861231e-02 4.72807661e-02
      3.17799523e-02 -1.44681325e-02 7.60088954e-03 3.16767842e-02
      3.07209622e-02 7.94108808e-02 -3.66011597e-02 -9.09675211e-02
      -4.32629734e-02 -2.94745415e-02 -1.78094935e-02 -8.87136348e-03
      1.10417977e-02 2.90757827e-02 7.93096349e-02 -2.74202544e-02
      -6.09099641e-02 2.45875400e-02 -3.31582356e-04 -5.35260066e-02
      1.64949931e-02 2.74506095e-03 -1.49938872e-03 5.80464005e-02
      -1.72530245e-02 -3.43251564e-02 6.76991642e-02 9.43230558e-03
      -3.10489461e-02 -2.28369497e-02 2.15228815e-02 3.15589607e-02
      5.91426380e-02 4.86368872e-02 5.04889414e-02 3.72994058e-02
      -3.09107322e-02 -4.69810553e-02 -2.47132573e-02 9.95054189e-03
      1.03592752e-02 5.86526282e-02 -3.89237627e-02 -8.31228495e-02
      5.21466285e-02 -9.71400645e-03 -4.14975584e-02 -4.51927595e-02
      1.56697631e-02 2.79122461e-02 2.08322443e-02 3.37043800e-03
      -1.83046311e-02 3.51763964e-02 -4.19667140e-02 -7.16306642e-02
      -3.84255275e-02 -2.99899583e-03 2.03860383e-02 3.85611095e-02
      1.80817284e-02 2.55429768e-03 4.60061729e-02 4.42712195e-02
      -6.41033426e-03 1.87419299e-02 1.57816373e-02 4.85570952e-02
      2.50609908e-02 -2.62332801e-02 -2.67267078e-02 5.85336611e-02
      4.78343964e-02 4.41388451e-02 -5.60982227e-02 -9.93284630e-04
      2.82760598e-02 3.45631316e-02 2.98209488e-02 2.17824150e-02
      2.46799719e-02 -1.05537279e-02 -4.81577851e-02 -2.08428074e-02
      1.55416206e-02 6.31244928e-02 1.23827299e-02 -1.20560974e-02
      1.63000971e-02 5.72522469e-02 1.03667257e-02 -1.32295201e-02
      4.76913489e-02 2.93057449e-02 3.32395397e-02 -5.07471152e-03
      -8.51510987e-02 -4.03261110e-02 3.43813747e-02 3.81862335e-02
      6.86425641e-02 1.64693817e-02 4.93315496e-02 3.37833054e-02
      6.71682460e-03 -1.57874543e-02 -3.62858325e-02 3.83744314e-02
      3.23221758e-02 3.88887599e-02 -2.96497811e-03 -3.11469613e-03
      4.11108993e-02 -1.72329117e-02 -7.46025369e-02 -3.37007195e-02
      4.74279858e-02 3.76008488e-02 3.54165845e-02 1.54198091e-02
      8.03391822e-03 -5.55963023e-04 -2.26393417e-02 -5.02407625e-02
      -6.34342283e-02 1.30356727e-02 4.35331352e-02 1.51092699e-02
      1.46347964e-02 4.05712463e-02 1.83946695e-02 1.81468502e-02
      -1.69393921e-03 1.37203094e-02 6.03798218e-02 4.64729704e-02
      2.04213727e-02 2.36487836e-02 -5.05157858e-02 -2.62259431e-02
      -3.07225855e-03 4.61341403e-02 3.69998976e-03 3.22074555e-02
      5.74245155e-02 2.13791691e-02 -9.20759141e-03 2.48897858e-02
      1.67965870e-02 1.60971691e-03 -2.64178123e-02 -4.72803414e-02
      -1.82392206e-02 1.66997954e-03 -2.62151305e-02 -5.17584532e-02
      -7.72521496e-02 -2.76747290e-02 -5.38703725e-02 1.87267810e-02
      -1.70369875e-02 1.85107384e-02 2.08352171e-02 -4.11701910e-02
      2.76267491e-02 -4.27450147e-03 -1.92160979e-02 -2.52091035e-04
      3.67712080e-02 -1.11503443e-02 -2.33574235e-03 -1.49880513e-03
      1.26736304e-02 6.08413294e-02 2.85845567e-02 1.25594474e-02
      7.57989194e-03 5.80962338e-02 8.09605513e-03 1.34786172e-02
      -3.20854932e-02 6.94411900e-03 -1.32695893e-02 -3.64111327e-02
      -2.90054288e-02 -4.17397171e-02 3.72344861e-03 -5.77537157e-02
      -3.74124646e-02 -4.04564478e-02 -3.01812720e-02 2.65601650e-02
      -1.73543859e-02 -1.14025781e-02 -3.04590203e-02 -1.83767322e-02
      -5.17238081e-02 -3.32082622e-02 -9.15082395e-02 6.03053812e-03
      -8.22297530e-04 -1.27957202e-02 3.17375222e-03 2.93797199e-02
      8.07337463e-02 1.51206562e-02 9.86151677e-03 -3.95926498e-02
      1.74849795e-03 2.50912886e-02 2.47283056e-02 6.12019747e-02
      6.07761145e-02 3.12797315e-02 -1.08597632e-02 1.61191486e-02
      1.24141341e-02 3.10912095e-02 -2.10108571e-02 -5.99577725e-02
      -5.34182563e-02 -2.42665727e-02 -1.24966195e-02 -5.67917340e-02
      -2.38216706e-02 -5.81899136e-02 -5.51484436e-06 -6.40865555e-03
      -5.56043759e-02 -1.50571568e-02 3.80029134e-03 -2.95745768e-02
      -1.40733216e-02 -3.45381387e-02 1.64617058e-02 3.16193551e-02
      4.39317897e-02 4.82880771e-02 2.92578153e-02 6.95884228e-02
      -3.50488797e-02 -6.30979240e-02 -1.71184726e-02 2.35913005e-02
      6.93059480e-03 4.79615033e-02 3.54324467e-02 2.37789042e-02
      6.26047179e-02 -1.99956261e-02 -7.38526657e-02 1.81359947e-02
      9.71177407e-03 7.07854703e-03 2.24521905e-02 1.06633641e-02
      -1.86398011e-02 -3.93481832e-03 -4.40388247e-02 -8.40575695e-02
      -7.67104235e-03 -2.62547890e-03 3.78579609e-02 5.33750616e-02
      3.48188132e-02 1.00013288e-02 -2.55074389e-02 -5.67639917e-02
      -7.50560313e-02 2.72679627e-02 3.31296697e-02 1.75265446e-02
      3.11677996e-02 3.14448588e-02 3.39158773e-02 4.99906577e-02
      -3.52483280e-02 -9.82394740e-02 3.18383835e-02 5.29802963e-03
      4.46862495e-03 -1.23293474e-02 9.15296189e-03 7.21073290e-03
      4.47350601e-03 3.74145173e-02 1.44588191e-03 3.91961411e-02
      2.80806492e-03 -4.66931015e-02 2.39888597e-02 1.58226788e-02
      1.32539514e-02 -3.31370570e-02 -3.26935276e-02 -8.87145624e-02
      2.47918107e-02 -3.92890954e-03 -6.47161389e-03 -4.27895710e-02
      -6.85429499e-02 -2.99458094e-02 -6.43853322e-02 5.21107428e-02
      -1.55372908e-02 -7.87130673e-04 -2.96539646e-02 -4.52024527e-02
      -3.17829400e-02 2.80294102e-02 2.45406032e-02 2.50926297e-02
      -3.47708352e-03 -1.26581369e-02 -1.51522672e-02 6.58777170e-03
      -5.04425094e-02 -8.16691946e-03 4.82443571e-02 3.59424613e-02
      -1.82565413e-02 -5.66860773e-02 3.28260299e-04 1.14029376e-02
      4.26328517e-02 -9.33903153e-04 -3.08299344e-02 1.10263070e-02
      1.50955049e-02 1.78321078e-02 -1.68213323e-02 -5.50872162e-02
      -2.87731481e-03 1.02310581e-02 -3.35400365e-02 -1.92121752e-02
      1.40090100e-02 1.03299152e-02 -3.51532921e-02 -5.70172518e-02
      -1.15344794e-02 2.86907684e-02 3.69550027e-02 -1.76104791e-02
      8.22700467e-03 2.78061740e-02 2.76545808e-02 -3.70357707e-02
      -1.12938471e-01 -4.31942791e-02 1.28612798e-02 3.54537852e-02
      3.78816165e-02 4.64278609e-02 1.74929406e-02 -7.89451296e-04
      -1.30461445e-02 -6.21027425e-02 -7.05780312e-02 -6.29412057e-03
      5.19558089e-03 3.84433605e-02 3.70472595e-02 3.26445736e-02
      2.31496952e-02 -1.85664501e-02 -8.96205306e-02 -5.40071912e-02
      1.08478563e-02 1.50768636e-02 3.46891806e-02 5.02922460e-02
      -1.16860261e-02 -7.64343468e-03 -2.79642195e-02 -8.06976333e-02
      -5.39523065e-02 9.38182045e-03 2.41319276e-02 7.65959844e-02
      4.82798405e-02 2.93190721e-02 3.61256711e-02 6.04120567e-02
      5.24552073e-03 1.67533401e-02 -3.01162642e-03 -1.44244405e-02
      2.76253815e-03 -2.86877691e-03 -5.53346016e-02 -1.95053611e-02
      -3.70577984e-02 1.14949478e-03 -2.05749078e-04 2.20935270e-02
      4.74512717e-03 -1.75646376e-02 1.69744715e-02 -2.19357256e-02
      2.22841538e-02 2.09348127e-02 8.08359496e-03 1.03399139e-02
      1.18003571e-02 2.03246996e-02 5.10542244e-02 -1.90267060e-02
      -7.21456259e-02 -2.20628809e-02 -4.36540246e-02 -3.11734583e-02
      -1.80089865e-02 1.07234064e-03 -1.02488175e-02 -4.28732075e-02
      1.02818236e-02 -3.15150172e-02 -2.95277070e-02 -4.21499200e-02
      -8.13713705e-04 -4.52209526e-04 1.20703848e-02 3.65579006e-04
      1.46849239e-02 1.87897272e-02 -8.97920784e-03 -3.60780396e-02
      -4.21771640e-03 8.74862913e-03 2.75196973e-03 -3.43765598e-03
      -4.45030704e-02 2.02470142e-02 3.31564853e-03 -5.30113801e-02
      -2.79667377e-02 -2.04766188e-02 -1.74360927e-02 -2.44523305e-03
      3.57463285e-02 2.88813617e-02 1.29871015e-02 1.27364090e-02
      -2.91935112e-02 -1.62080731e-02 -8.59729946e-03 1.67790428e-02
      -1.87137141e-03 2.80123986e-02 -1.98257267e-02 -2.57147960e-02
      -1.92149803e-02 -2.65318602e-02 -2.05871575e-02 1.61005072e-02
      3.08836643e-02 -3.81143130e-02 -1.28458943e-02 -4.90562357e-02
      1.11365933e-02 2.84876432e-02 -3.15244161e-02 1.54865580e-03
      8.05762857e-02 4.36743200e-02 -6.35417271e-03 2.05701701e-02
      2.27789767e-02 2.04879940e-02 -1.86656229e-02 -3.60926688e-02
      -2.08476651e-03 2.09569205e-02 9.11379512e-03 -5.76936528e-02
      1.79723967e-02 -6.83953017e-02 -3.64957079e-02 3.25473770e-02
      8.86722002e-03 1.00930193e-02 2.47963704e-02 -1.67209432e-02
      -4.75432118e-03 6.69063395e-03 -7.10813981e-03 2.39545908e-02
      3.01227923e-02 -1.98058933e-02 -4.53916341e-02 -5.48975135e-04
      -3.20065916e-02 -6.10235035e-02 -8.34375247e-03 -3.40661313e-03
      3.70060690e-02 6.18022829e-02 2.56073084e-02 -2.21170764e-02
      -2.45090872e-02 -7.09565207e-02 -4.63808551e-02 3.08359005e-02
      3.10851205e-02 3.52822840e-02 5.17392531e-02 9.43497010e-03
      -1.69099439e-02 2.24214830e-02 -6.21785559e-02 -2.86339149e-02
      -2.70144660e-02 -8.67076032e-03 4.05490473e-02 6.35582730e-02
      3.27824168e-02 1.67206377e-02 -3.17713730e-02 -5.36618829e-02
      -2.46005729e-02 3.26200649e-02 1.90658998e-02 3.88781093e-02
      6.13331469e-03 -1.00017292e-02 -1.29655693e-02 -3.36045027e-02
      -2.60412507e-02 -4.62266766e-02 5.24875373e-02 3.36888805e-03
      -4.30117128e-03 -5.13340160e-02 -4.34458740e-02 -2.80341096e-02
      -5.47110215e-02 4.84565720e-02 1.55585548e-02 -9.73755773e-03
      -5.47316000e-02 -8.04394782e-02 2.07874998e-02 1.85811277e-02
      1.47084640e-02 -2.95335669e-02 -2.26463526e-02 -2.16607619e-02
      6.36151433e-02 9.05912928e-03 1.72188282e-02 -3.65056843e-02
      -1.79028697e-02 4.71402658e-03 3.08914250e-03 8.30322206e-02
      3.49343717e-02 1.28431339e-02 -1.45136928e-02 -5.54215908e-02
      -3.50278802e-02 1.82612035e-02 1.33448876e-02 7.63183087e-03
      -1.44593301e-03 -5.58319986e-02 1.42977396e-02 3.00866142e-02
      -1.47376740e-02 -2.74364240e-02 2.23053452e-02 2.78204754e-02
      8.68244842e-03 -5.13789169e-02 -3.13262604e-02 3.89203243e-02
      3.98796871e-02 -1.29786390e-03 -3.81148271e-02 -1.93364976e-03
      1.69180147e-03 -2.18022075e-02 -2.30047964e-02 -4.73045669e-02
      -8.61326698e-03 -1.27019547e-02 -3.21716592e-02 -3.63032408e-02
      -1.68558341e-02 -2.40788097e-03 -2.24404559e-02 -5.43145537e-02
      -3.21524329e-02 1.06652649e-02 9.17329337e-04 -2.90258490e-02
      8.40889197e-03 2.32991390e-02 2.65345369e-02 1.58234891e-02
      -9.79632437e-02 -3.79063264e-02 1.20612374e-02 1.67923793e-02
      1.59198400e-02 4.05872278e-02 -2.21037189e-03 9.87230986e-03
      -2.13939641e-02 -1.05539188e-01 -4.86901365e-02 1.03880535e-03
      1.62596256e-02 6.23610020e-02 -6.39479049e-03 6.43511536e-03
      1.28881177e-02 2.01914571e-02 -8.80150571e-02 -5.48814870e-02
      -3.37088713e-03 -8.02035443e-03 -3.03706862e-02 3.68337557e-02
      -3.88429733e-03 -4.45756083e-03 -1.66537277e-02 -7.79231340e-02
      -5.76501489e-02 -1.33282710e-02 -5.96392993e-03 1.66961141e-02
      1.17015569e-02 -3.10000498e-02 1.71672981e-02 2.71853805e-02
      -8.24451912e-03 2.65880451e-02 1.85546454e-03 3.37378867e-02
      5.44162616e-02 -3.45844030e-02 -6.59214184e-02 -1.26509024e-02
      -2.69456040e-02 -2.65892968e-02 -1.99382752e-02 -2.04482228e-02
      1.09413574e-02 -2.76230578e-03 3.82667221e-02 -4.62188531e-04
      1.56416260e-02 3.26547734e-02 3.95609671e-03 4.72346954e-02
      2.65926346e-02 3.41722518e-02 6.03268445e-02 -7.61852786e-02
      -7.61873573e-02 -3.81996781e-02 1.18699041e-03 1.35683101e-02
      2.64363643e-02 -3.58345127e-03 9.37455799e-04 -2.56825332e-02
      -2.57543083e-02 -4.83449921e-02 -1.87921189e-02 2.64274739e-02
      1.44609781e-02 2.87311804e-03 1.52855394e-02 3.12672481e-02
      5.62395435e-03 -1.90587435e-02 -3.91800217e-02 1.03785256e-02
      7.19892904e-02 5.64876162e-02 2.47442126e-02 1.97741948e-02
      -4.19186428e-03 -3.12791057e-02 -3.72952409e-02 -7.01260418e-02
      -2.18459386e-02 5.61399348e-02 5.77275939e-02 4.33564298e-02
      -3.67423380e-03 -2.40430236e-02 -2.90462654e-02 -4.67034392e-02
      -4.25611846e-02 -1.07151084e-02 8.75098780e-02 1.09733708e-01
      8.37824717e-02 1.45217180e-02 -5.73781058e-02 -1.90604851e-02
      -4.11167368e-02 -5.53535596e-02 -1.04544275e-02 3.92197892e-02
      1.07482253e-02 2.95994524e-03 3.63644660e-02 7.26781040e-03
      -2.62846146e-02 1.41322780e-02 -1.64977554e-02 9.57298744e-03
      4.06074822e-02 1.58440582e-02 5.48699405e-03 3.35031115e-02
      5.65004535e-02 5.08532375e-02 -6.65966496e-02 -4.36310023e-02
      6.26618834e-03 5.41619770e-02 2.60038376e-02 2.89945081e-02
      1.27102770e-02 -3.02263293e-02 -3.87976915e-02 -6.91187708e-03
      -1.87271740e-02 6.58583641e-03 3.61838080e-02 1.64187595e-03
      -6.74032187e-03 1.65416654e-02 3.49145457e-02 2.06504762e-02
      3.17955352e-02 -2.81924028e-02 1.20292265e-04 3.81918699e-02
      -2.93387789e-02 -4.41296808e-02 -1.82659812e-02 1.15532028e-02
      4.66824248e-02 4.28355001e-02 1.48322433e-02 5.30484226e-03
      1.50466319e-02 -4.16986011e-02 3.20712253e-02 8.14634655e-03
      1.37355905e-02 1.61735006e-02 -6.01431122e-03 -1.06214583e-02
      1.90412290e-02 3.94461304e-02 -3.08601670e-02 -7.71343261e-02
      -2.52608582e-02 1.60199609e-02 3.00234780e-02 2.94095352e-02
      2.18489710e-02 2.60212887e-02 2.45862026e-02 -3.77641767e-02
      -1.33603271e-02 2.95314025e-02 4.35520485e-02 2.86227167e-02
      -2.22716061e-03 2.57352203e-05 1.12758977e-02 -5.21386741e-03
      -4.97687049e-02 8.00145324e-03 1.69846620e-02 -1.57299731e-02
      -1.52318422e-02 -4.60597500e-02 -2.16927323e-02 1.25920735e-02
      3.22962403e-02 5.89977019e-02 4.26735394e-02 2.74442602e-04
      -2.62542460e-02 -5.70556112e-02 2.82482523e-03 2.43560486e-02
      2.21527983e-02 1.27231320e-02 -3.89674976e-02 2.14832500e-02
      3.63983996e-02 1.60118751e-02 -1.47164296e-02 -5.28235771e-02
      1.22239189e-02 5.18530495e-02 4.92227115e-02 7.92120844e-02
      6.33263811e-02 1.19844470e-02 -1.92395356e-02 -6.47984073e-02
      -3.94282602e-02 -4.95357811e-03 -2.15914403e-03 -5.24482019e-02
      -2.57488284e-02 -3.88077572e-02 -3.87105066e-03 2.96962168e-03
      -2.93050744e-02 -2.12407373e-02 -7.48475268e-03 9.75335483e-03
      -2.88853049e-02 -5.79905324e-02 -8.70386139e-03 2.71532126e-02
      4.18247096e-03 -8.33867770e-03 -5.73180709e-03 -2.54101288e-02
      -1.09420130e-02 -8.19876269e-02 -3.01427040e-02 -3.52888815e-02
      -2.22761240e-02 -1.04369465e-02 -3.30738863e-03 -1.09268315e-02
      -2.88946205e-03 2.32558120e-02 -3.28292660e-02 -4.75527495e-02
      -1.84160285e-02 9.83381923e-03 -5.92340110e-03 -2.56429017e-02
      -1.69304553e-02 1.42191341e-02 1.01055447e-02 1.26532260e-02
      -1.01292312e-01 -2.38925517e-02 1.83178075e-02 -1.62889401e-03
      -2.02061422e-02 4.89573814e-02 3.47457714e-02 7.46136857e-03
      6.76801056e-03 -5.72507866e-02 -3.33204567e-02 -6.35526981e-03
      7.63721811e-03 9.81147680e-03 -1.68561712e-02 -5.56289335e-04
      -1.12567991e-02 -4.13152277e-02 -7.99859315e-02 -4.16964525e-03
      1.86790749e-02 9.01043881e-03 -2.01393589e-02 2.24174894e-02
      1.63873583e-02 -2.35523880e-02 -5.36440834e-02 -6.73296526e-02
      -4.15100940e-02 5.20005077e-03 3.40735689e-02 2.03154925e-02
      2.23600101e-02 -2.68897396e-02 -8.30143970e-03 1.17402952e-02
      1.30407303e-03 5.77429198e-02 3.04922871e-02 4.15602475e-02
      3.67672779e-02 -7.00646266e-02 -6.32583871e-02 -3.74245271e-02
      2.37404332e-02 6.26615882e-02 2.29481142e-02 -6.52355608e-03
      9.74565465e-03 -7.28026703e-02 7.42358097e-04 -1.34824365e-02
      -3.83346677e-02 -7.30401464e-03 -2.10400466e-02 2.73261704e-02
      4.67867069e-02 5.40831164e-02 3.53877321e-02 -2.91988868e-02
      -1.73358023e-02 -1.84507072e-02 -1.24050230e-02 4.11640480e-02
      6.12120004e-03 9.41370055e-03 2.29387991e-02 -4.27876934e-02
      -4.82223816e-02 -3.61351855e-02 -7.45897926e-03 7.26374909e-02
      7.88577273e-02 3.92560661e-02 7.94946274e-04 -5.63068129e-02
      -8.40476006e-02 -5.39613329e-02 -3.77644203e-03 1.05924523e-02
      4.24669310e-02 4.65705767e-02 6.11181557e-02 1.80458203e-02
      -6.47321492e-02 -8.01291913e-02 1.82309411e-02 -2.21825633e-02
      -2.12709978e-02 4.03028615e-02 6.52804449e-02 1.66038331e-02
      1.06112566e-02 -4.15437892e-02 -5.11183701e-02 -5.63926203e-03
      -8.89497343e-03 -1.77462958e-02 1.71724777e-03 2.74895318e-02
      2.30418071e-02 2.40859985e-02 -5.68443500e-02 -5.50359935e-02
      -6.64897263e-02 -3.99122015e-02 1.25739817e-03 2.86545251e-02
      2.17682719e-02 3.15886959e-02 1.89658105e-02 -7.20819458e-02
      -8.95527080e-02 -1.70796867e-02 -3.90108190e-02 -5.88518800e-03
      1.46713499e-02 2.29776576e-02 1.93181913e-02 -3.81602719e-03
      -2.93621309e-02 -1.17851784e-02 -2.07021106e-02 -3.67631577e-02
      -1.42988171e-02 -1.28048593e-02 1.58967543e-02 6.01911079e-03
      -2.44508410e-04 -4.14769538e-02 -4.71452884e-02 1.60956644e-02
      -6.03260472e-03 -4.83098114e-03 2.00389121e-02 5.88313565e-02
      2.96209008e-02 1.02391802e-02 1.42875582e-03 -1.22980373e-02
      -2.17145681e-03 2.48902768e-04 6.46274909e-03 -5.97809674e-03
      -5.06077409e-02 -2.17516143e-02 6.96486677e-04 -2.16708165e-02
      3.28039075e-03 4.10697125e-02 5.41792661e-02 5.65515347e-02
      1.00130392e-02 -6.47612885e-02 9.00607929e-03 2.42306050e-02
      9.09934845e-03 3.22330445e-02 2.68726870e-02 1.09727364e-02
      8.12655222e-03 -2.47618230e-03 -3.00108530e-02 -5.08293733e-02
      -3.21969911e-02 -2.36988664e-02 3.05452459e-02 7.81816766e-02
      9.87429172e-02 9.16293785e-02 1.58712175e-03 -8.85969251e-02
      -1.98195465e-02 -6.67836005e-03 1.79872080e-03 5.62995970e-02
      2.33145319e-02 3.51451635e-02 6.05055578e-02 4.60305531e-03
      -8.22984278e-02 -3.19052674e-02 -4.64108540e-03 -1.54056204e-02
      1.47600640e-02 -1.68348290e-02 6.50574511e-04 2.68804934e-02
      2.24992372e-02 3.46776545e-02 4.36136760e-02 2.30314974e-02
      -2.33976264e-02 -1.93121880e-02 5.01041189e-02 4.64554541e-02
      7.09997565e-02 -5.79003152e-03 -9.84906107e-02 -3.61880176e-02
      9.04597982e-05 -1.48971658e-02 1.07690636e-02 -1.64429878e-03
      1.41216544e-02 2.54376847e-02 4.04063463e-02 2.37077121e-02
      9.44515225e-03 -9.16659832e-03 -1.16025908e-02 -3.15430644e-03
      1.59584153e-02 -3.42775397e-02 -1.22443410e-02 -7.02325106e-02
      -4.98186015e-02 5.99950459e-03 -1.14247072e-02 -1.12149641e-02
      1.11959809e-02 2.11331341e-02 -4.78507066e-03 3.09069529e-02
      -1.85667351e-02 -5.24211526e-02 -1.51987048e-02 1.65993571e-02
      -1.07526612e-02 -4.48065111e-03 7.82229099e-03 -7.92114355e-04
      4.92630154e-03 -6.59101084e-02 -7.51057491e-02 -3.27981040e-02
      -1.76291578e-02 -1.52336257e-02 8.50147218e-04 1.93062406e-02
      2.27338504e-02 4.79036383e-02 -1.56683736e-02 -3.47573720e-02
      -1.09366719e-02 2.17143949e-02 3.92818404e-03 7.27999769e-03
      1.52073652e-02 1.09242434e-02 7.10346084e-03 -4.61655483e-02
      -7.29102492e-02 7.11056730e-03 2.00434439e-02 8.78928322e-03
      -6.81877544e-04 3.83513123e-02 4.42942465e-03 -4.31399373e-03
      -5.83230369e-02 -5.74922971e-02 -5.74518703e-02 -9.67137865e-04
      1.64733641e-02 4.07890640e-02 2.89144553e-02 -1.97643670e-03
      3.59105365e-03 -4.41426188e-02 -8.03835019e-02 -2.10917536e-02
      2.06619203e-02 1.77375805e-02 3.41457166e-02 1.34908948e-02
      -2.92971153e-02 6.97983848e-03 -5.52317463e-02 -5.31578511e-02
      -7.83925429e-02 1.30400667e-03 1.21195195e-02 4.96525019e-02
      1.74048413e-02 6.02301210e-03 1.15326848e-02 -1.29013807e-02
      -4.23163315e-03 2.17381213e-02 1.69276223e-02 2.62316242e-02
      4.57342044e-02 -5.29132932e-02 -6.14072531e-02 -2.93937363e-02
      -3.99114117e-02 5.97045198e-03 -9.46175028e-03 -1.72499716e-02
      -3.63006964e-02 -3.26367207e-02 3.70030105e-02 1.19686229e-02
      3.75779048e-02 1.91685930e-02 2.61400826e-02 1.43405097e-02
      3.23651321e-02 3.12985517e-02 5.25143333e-02 -4.69563752e-02
      -5.21331802e-02 -2.54323299e-04 -1.15524493e-02 -1.88804194e-02
      -4.29952145e-02 1.87031168e-03 -2.60341149e-02 -4.50013168e-02
      -9.65171307e-03 -6.32334277e-02 -5.22345230e-02 -2.14440636e-02
      1.05946297e-02 1.43501889e-02 -6.00629253e-03 -6.81590140e-02
      -4.00930457e-02 -8.10552388e-04 -6.42310902e-02 -4.80914116e-02
      -2.58128773e-02 3.81164551e-02 1.59990080e-02 -1.04623502e-02
      -5.36240749e-02 -2.84143966e-02 6.94505358e-03 -1.93025358e-02
      3.44260549e-03 1.68411378e-02 3.33282650e-02 -3.35628875e-02
      -4.64055594e-03 -2.39062011e-02 -1.23198312e-02 1.14488453e-02
      -3.30051705e-02 -7.86029827e-03 3.27833295e-02 6.37061223e-02
      -9.49376542e-03 -2.74537671e-02 -5.12453541e-02 -4.60047796e-02
      -5.67712747e-02 -5.98764755e-02 -4.34026793e-02 -1.84291285e-02
      8.05840455e-03 1.82920729e-03 -2.53475253e-02 -1.92726813e-02
      -1.38362497e-02 6.75735483e-03 -4.85026874e-02 3.30729573e-03
      2.74954420e-02 2.62844227e-02 -4.45341272e-03 2.78130453e-03
      1.37490258e-02 2.50717551e-02 -7.62942731e-02 -8.53239149e-02
      -5.67872226e-02 1.73299164e-02 5.51904514e-02 6.63883910e-02
      6.45894092e-03 -3.12297381e-02 -4.59721945e-02 -3.40285189e-02
      -6.04724735e-02 -2.93033831e-02 2.84480173e-02 6.52853353e-03
      5.07585183e-02 2.43596211e-02 -1.91444487e-04 2.81186085e-02
      2.59946678e-02 -3.19572352e-02 -3.43027152e-02 -1.34176211e-02
      -8.03060010e-02 -5.75519465e-02 -1.04801673e-02 3.13280337e-02
      4.33980003e-02 6.93801865e-02 4.42789011e-02 4.43227105e-02
      -1.84939709e-02 -8.70091692e-02 3.59214027e-03 3.04446574e-02
      4.45500948e-02 5.92440292e-02 4.24443036e-02 -3.24124694e-02
      -3.62067074e-02 -7.98669234e-02 -1.03603438e-01 -1.46398013e-02
      -6.01767190e-03 2.22153254e-02 3.32041830e-02 7.27908984e-02
      4.86729704e-02 2.55196858e-02 -7.10947439e-02 -5.16150519e-02
      4.67303507e-02 6.06359467e-02 4.71687764e-02 6.42228350e-02
      3.01109180e-02 1.73665732e-02 3.39225903e-02 -2.33735368e-02
      -1.10240228e-01 -2.65293401e-02 -9.10927914e-03 -3.63322087e-02
      -5.61766850e-04 7.13949034e-04 -7.66371842e-03 2.32833531e-02
      6.09212257e-02 3.64012271e-02 3.52431759e-02 -2.14942973e-02
      -5.63716106e-02 -2.02389024e-02 4.93537113e-02 4.72748950e-02
      3.37614156e-02 -6.79701120e-02 -9.14000571e-02 4.34505101e-03
      1.74864568e-02 1.34678166e-02 3.85526903e-02 2.49778107e-02
      9.91167407e-03 3.09123881e-02 5.61773404e-02 4.12881486e-02
      4.19113785e-02 3.77605222e-02 5.13358368e-03 1.87102631e-02
      2.92155915e-03 1.78679507e-02 1.67845283e-02 -4.21556048e-02
      -7.16309249e-02 -1.65235735e-02 -9.25657246e-03 -4.99218563e-03
      -1.48366671e-02 2.65086000e-03 2.51332633e-02 3.94368172e-02
      1.42435506e-02 -4.34975959e-02 -1.20811230e-02 8.70329794e-03
      1.06045417e-02 -2.43727304e-02 -6.25083037e-03 3.03319131e-04
      2.14520339e-02 -1.98124684e-02 -6.34082705e-02 -4.90781330e-02
      4.96437773e-03 2.64610834e-02 3.40995635e-03 2.27542259e-02
      6.14907651e-04 3.83136421e-02 7.59347866e-04 -4.02528197e-02
      4.04047314e-03 4.51133540e-03 1.14987921e-02 -1.96689274e-02
      1.20102493e-02 7.92921579e-04 9.47436597e-03 -7.01022625e-04
      -7.19959363e-02 -3.12504582e-02 -9.73045267e-03 3.90092540e-03
      1.04965642e-02 1.48627721e-02 -1.06534595e-02 1.42151741e-02
      -3.10405158e-03 -6.16585985e-02 -9.45123136e-02 -1.05331028e-02
      -9.55482945e-03 3.06975301e-02 6.31514762e-04 3.72864003e-03
      3.61094400e-02 1.14859026e-02 -6.16633520e-02 -3.99028473e-02
      -3.61391604e-02 -1.24357985e-02 2.60829064e-03 1.83842017e-03
      1.36162359e-02 1.08692925e-02 3.22030671e-02 -2.12327559e-02
      -1.69751402e-02 -3.81800644e-02 -3.44810560e-02 -2.86552869e-03
      4.64950688e-02 2.64139734e-02 2.05311943e-02 4.34967726e-02
      2.54458096e-02 1.24724125e-02 -9.91880242e-03 -2.01725364e-02
      1.97153259e-02 -3.32787596e-02 -2.86106616e-02 -3.17045040e-02
      2.02502999e-02 8.51994194e-03 -3.51738147e-02 -3.03679910e-02
      -5.03586717e-02 -5.34365773e-02 3.28308977e-02 3.42618302e-02
      1.41917560e-02 6.33464903e-02 2.26883143e-02 5.19006997e-02
      1.21256104e-02 -2.65093576e-02 -1.87909100e-02 -3.82372029e-02
      6.05351524e-03 -1.34712057e-02 1.47248739e-02 2.79101282e-02
      2.90654749e-02 2.44115219e-02 -3.80482525e-02 -6.64877370e-02
      -1.77556425e-02 4.52068029e-03 -4.75758733e-03 4.71981727e-02
      2.62931287e-02 -3.23051512e-02 -4.26590033e-02 -5.67034930e-02
      -1.04947053e-02 9.39045660e-03 1.82692967e-02 3.52803804e-02
      3.78545523e-02 6.93472326e-02 4.01700102e-03 -3.78396660e-02
      -5.76002896e-02 -2.25033034e-02 -1.58883911e-02 1.22996960e-02
      -1.82553157e-02 3.97774428e-02 7.69473240e-02 3.81220877e-02
      2.61035678e-03 -3.68270725e-02 -4.35844287e-02 6.82403613e-03
      3.91232222e-02 4.61765416e-02 1.69883277e-02 4.88003567e-02
      4.20971923e-02 -2.49069389e-02 -2.59649083e-02 -2.65297443e-02
      -8.15549046e-02 -6.14977852e-02 -2.35843547e-02 4.62342193e-03
      5.68595678e-02 4.05133069e-02 1.53132239e-02 -1.63248423e-02
      -3.60644162e-02 -5.66395037e-02 -8.20864439e-02 -3.62775922e-02
      2.39150636e-02 9.07228328e-03 3.85344140e-02 4.47480567e-02
      3.78695577e-02 5.07267453e-02 -4.44663651e-02 -3.17789763e-02
      3.26990932e-02 2.09015962e-02 3.15361433e-02 1.89520568e-02
      6.00487925e-04 -6.61232416e-03 -3.11507732e-02 -4.29543406e-02
      -1.65806375e-02 4.69311476e-02 8.19920450e-02 5.57524823e-02
      7.24495947e-02 4.44978923e-02 2.97793988e-02 2.11846903e-02
      1.69879582e-04 -3.52197774e-02 -6.55294955e-02 -4.28984426e-02
      -8.97517204e-02 4.21626586e-03 1.64266936e-02 2.30334140e-02
      5.10268472e-02 5.57046384e-02 3.58651690e-02 -6.01426279e-03
      -4.22370397e-02 -5.25777228e-02 5.53641692e-02 6.24005683e-02
      4.54725586e-02 6.23934008e-02 -5.27245319e-03 -7.59754563e-03
      -7.54836062e-03 2.27785092e-02 -3.87218595e-02 2.07409784e-02
      3.34513523e-02 2.26713829e-02 4.17637415e-02 6.04567640e-02
      5.07373139e-02 9.57272202e-03 2.34057810e-02 -4.58387323e-02
      3.53994407e-02 5.99135570e-02 3.58996838e-02 6.47961646e-02
      5.29605746e-02 3.90333012e-02 1.62291378e-02 -6.47324324e-02
      -7.68129751e-02 -1.65988915e-02 3.19341496e-02 2.03214530e-02
      3.92788723e-02 2.10194476e-02 1.70343332e-02 2.40864083e-02
      3.70098315e-02 2.37682071e-02 4.14594263e-03 4.57146354e-02
      1.31549342e-02 1.07440269e-02 4.82594892e-02 3.94390859e-02
      1.37997232e-02 -4.36349250e-02 -7.08789527e-02 -4.23832387e-02
      3.57575864e-02 1.20691713e-02 4.65884358e-02 2.29534451e-02
      1.14029488e-02 1.43590309e-02 1.94253009e-02 2.23815581e-03
      -9.39112622e-03 1.73645876e-02 -7.24254688e-03 9.51769669e-03
      -2.56644432e-02 -2.33627856e-02 -2.57860292e-02 -5.07420115e-02
      -4.18893509e-02 -1.45274708e-02 -7.82021973e-03 7.53221684e-04
      -2.07876116e-02 -4.29231994e-04 -7.01327948e-03 1.30366916e-02
      -7.73531338e-03 -2.00687181e-02 8.85420665e-03 1.31149497e-02
      -9.81096271e-03 -1.31063061e-02 -1.26090581e-02 -1.66128762e-02
      -2.44980119e-02 -6.70243949e-02 -2.96184272e-02 1.87813230e-02
      3.45643051e-02 1.17859850e-02 -1.05384924e-02 1.15181925e-02
      2.13778783e-02 8.09957553e-03 -2.56200396e-02 -2.57079583e-02
      4.90942672e-02 2.45300028e-02 -2.03528386e-02 -2.99787126e-03
      1.93464838e-03 1.02452580e-02 1.47289401e-02 -3.46173458e-02
      -6.85325488e-02 8.34448356e-03 -1.04167070e-02 -3.44678643e-04
      2.04526279e-02 -9.46856849e-03 1.62688792e-02 -5.71388332e-03
      -5.51429167e-02 -4.78162942e-03 2.16174424e-02 1.46226473e-02
      -7.96339847e-03 -8.84912536e-03 3.77226435e-02 1.95297115e-02
      4.42640577e-03 -4.07362431e-02 -9.00579169e-02 3.48016024e-02
      3.96866500e-02 7.81320408e-03 3.55088636e-02 3.62404026e-02
      -9.20038484e-03 -2.14486457e-02 -3.86311375e-02 -6.69472618e-03
      1.89731475e-02 3.29355411e-02 3.41075771e-02 5.08139096e-02
      3.68201956e-02 2.58629937e-02 1.97608722e-04 -2.49445736e-02
      2.01851614e-02 3.77070047e-02 4.38054390e-02 -3.49012227e-03
      -3.34389843e-02 -5.62816449e-02 4.87316865e-03 -1.35766622e-02
      -1.08927547e-03 -4.22768667e-02 -3.09118405e-02 3.31377499e-02
      -2.64474377e-02 -8.04865137e-02 6.91132694e-02 1.32807326e-02
      -7.94030260e-03 -1.40453549e-02 9.82530043e-03 5.09362258e-02
      3.67872529e-02 4.55333069e-02 3.01891342e-02 -3.03214919e-02
      -2.06063520e-02 -2.39237063e-02 -8.80844146e-03 -4.46239412e-02
      -2.89486572e-02 1.09061170e-02 1.45852449e-03 -3.67311612e-02
      -6.88578710e-02 4.43320908e-03 -1.26651991e-02 3.87101062e-02
      1.67435929e-02 1.94176901e-02 1.65998545e-02 -6.42180070e-03
      -5.11893071e-02 2.41329242e-02 1.09843761e-02 1.47542544e-03
      2.81621739e-02 3.89554352e-02 3.34707950e-03 -6.45403489e-02
      -6.52366355e-02 -4.10995744e-02 -5.32529876e-02 -4.95712459e-02
      -5.79465628e-02 1.42333126e-02 -3.03649483e-03 1.15122152e-02
      1.37800712e-03 6.94565894e-03 -1.27127226e-02 1.83406956e-02
      -3.30328122e-02 -8.55209399e-03 8.52307677e-03 8.02420825e-02
      4.55219112e-03 -2.68240497e-02 -2.93503189e-03 1.74015723e-02
      -7.75837759e-03 -3.69602032e-02 -6.30704407e-03 6.21057290e-04
      5.04265465e-02 1.60048902e-02 -5.30460812e-02 -4.18358929e-02
      -2.09622420e-02 -2.44963579e-02 4.08782298e-03 4.20979708e-02
      1.98402982e-02 3.31229381e-02 3.56055833e-02 -3.49126533e-02
      -2.51500253e-02 -3.83713073e-03 -5.63747110e-03 -8.11116304e-03
      -6.27822615e-03 -1.10422382e-02 2.82309037e-02 -3.52722257e-02
      -2.59416662e-02 -1.37592163e-02 1.48845767e-03 2.16763709e-02
      5.65507859e-02 3.76784019e-02 3.19306776e-02 6.69917464e-03
      -1.38845826e-02 -2.76258830e-02 1.56173296e-02 -1.28245400e-02
      2.46826210e-03 1.90679878e-02 1.60440020e-02 -1.48105538e-02
      -4.25127745e-02 8.79418664e-03 -2.52153333e-02 -2.28248443e-02
      1.27707180e-02 4.17611226e-02 5.64386807e-02 2.97911391e-02
      -9.69529059e-03 -2.95886286e-02 1.04627414e-02 2.13295687e-02
      1.80863775e-02 4.14294042e-02 2.10220926e-02 2.57345997e-02
      1.33127877e-02 -9.04535595e-03 -6.40615150e-02 -3.85357663e-02
      -2.55960915e-02 9.79056768e-03 5.22183860e-03 6.32244870e-02
      3.15976925e-02 4.82450090e-02 -5.27345855e-03 -2.59344261e-02
      1.82362925e-02 2.19904725e-02 3.50251794e-02 5.25089614e-02
      3.94453183e-02 4.03646342e-02 1.27787422e-02 -1.30552659e-02
      -1.46561936e-02 -3.33068110e-02 1.40133100e-02 5.33724576e-03
      3.72825898e-02 1.94243230e-02 1.81086324e-02 3.44427326e-03
      4.56990581e-03 4.59891260e-02 -6.50909077e-03 -9.65538342e-03
      3.04087385e-04 1.62846427e-02 5.21803759e-02 3.35988328e-02
      -3.47663206e-03 -3.57778035e-02 -5.62173724e-02 -3.67962942e-02
      1.30941458e-02 1.45741673e-02 4.24183421e-02 -3.06603895e-03
      -2.75581726e-03 -4.04550135e-02 -5.65278754e-02 1.56531371e-02
      1.60139725e-02 -1.40148122e-02 -1.38979992e-02 -3.43423430e-03
      -1.09779397e-02 -4.71369103e-02 -3.01741213e-02 -8.15970004e-02
      -3.31032276e-02 -3.37958010e-03 2.96044983e-02 -1.70533999e-03
      -4.01928984e-02 9.05332062e-03 -1.89891551e-02 -6.02422878e-02
      -3.94003205e-02 -2.07612403e-02 2.34703254e-02 1.99950859e-03
      -2.91055832e-02 -1.75326597e-02 -2.73085684e-02 -3.78089049e-03
      -4.13750298e-03 -3.16283107e-02 3.47535051e-02 1.97627358e-02
      5.90358749e-02 1.36457300e-02 -3.16147693e-02 1.88410208e-02
      -1.98293794e-02 -1.69148613e-02 -7.64244935e-03 2.47032493e-02
      2.30736323e-02 2.93549914e-02 2.22329935e-03 1.94173157e-02
      3.34432982e-02 1.80646181e-02 -8.73660669e-03 -5.78579418e-02
      -8.72180685e-02 4.63548899e-02 3.51650268e-02 1.91108417e-03
      1.42944492e-02 6.37108758e-02 -1.19552286e-02 -1.78146232e-02
      -7.53462613e-02 -4.60660271e-02 -1.14353420e-03 2.54491381e-02
      1.95035860e-02 5.09519465e-02 4.47108038e-02 3.87248956e-02
      -9.59215499e-03 -6.18079491e-03 -6.90367967e-02 6.73267245e-03
      2.71136854e-02 1.35924499e-02 2.30450649e-02 9.03580263e-02
      3.44223678e-02 -1.18838660e-02 -2.96945255e-02 -5.11659570e-02
      -9.47370566e-03 1.98748503e-02 -1.15843685e-02 5.91736697e-02
      6.39394224e-02 -5.93884056e-03 -1.81437377e-02 -9.90437996e-03
      -1.71776917e-02 7.14772847e-03 8.63967463e-03 3.13241454e-03
      3.49975266e-02 -1.76887717e-02 -5.25670461e-02 -3.35112996e-02
      -2.10909545e-02 -1.34840533e-02 -3.20178829e-02 -1.13294437e-03
      -1.54795870e-02 -5.15887104e-02 7.71602616e-02 -6.45152945e-03
      -9.78473667e-03 5.95252262e-03 1.58776287e-02 2.40630340e-02
      2.81892307e-02 -4.85077547e-03 5.41016869e-02 -4.87986999e-03
      -6.34734854e-02 -1.68147478e-02 2.67061852e-02 3.82168330e-02
      1.70727621e-03 -1.17259687e-02 -2.59213964e-03 -6.15815399e-03
      -3.68159562e-02 -6.84133545e-02 -3.89380082e-02 2.17898041e-02
      3.30754966e-02 2.72968058e-02 -2.52071656e-02 2.42840294e-02
      8.10075551e-03 -1.55385323e-02 -5.93789108e-02 -2.86533162e-02
      -3.22447307e-02 4.78402525e-02 1.28677366e-02 -2.15404779e-02
      -6.50803233e-03 -1.59730017e-02 -9.43684392e-03 -1.68510601e-02
      1.97922774e-02 7.09620714e-02 5.85097373e-02 7.80087477e-03
      9.87697858e-03 1.85724925e-02 2.14170869e-02 2.25080037e-03
      -2.96553988e-02 1.16719054e-02 2.69863922e-02 4.67964783e-02
      4.44268528e-03 8.32757633e-03 1.12591209e-02 -1.00553539e-02
      -2.25238372e-02 2.13680789e-03 -5.19339592e-05 -3.38677764e-02
      1.50376027e-02 -2.01676954e-02 -1.65468350e-03 -1.48451319e-02
      -2.77007483e-02 3.56461084e-03 1.75551698e-02 2.61269044e-02
      5.93136204e-03 3.89303304e-02 -5.85672865e-03 -1.20300734e-02
      1.40446071e-02 -3.58264260e-02 -1.87093746e-02 -3.52780297e-02
      6.23812201e-03 2.46378244e-04 4.87860329e-02 3.67802568e-02
      3.86794657e-03 -8.23898334e-03 -1.38983224e-03 3.17949685e-03
      9.57969669e-03 2.35156459e-03 1.28325811e-02 5.55377007e-02
      5.46449572e-02 6.13270421e-03 2.51791589e-02 3.21847154e-03
      2.64994074e-02 2.32033823e-02 2.29061376e-02 -5.50462417e-02
      -6.00064583e-02 -1.49893211e-02 -3.53471213e-03 2.93154344e-02
      -6.95835240e-03 5.78164235e-02 5.38643710e-02 5.40460683e-02
      -2.67208666e-02 -6.34636134e-02 1.61105804e-02 5.36878295e-02
      5.14342338e-02 3.67732868e-02 5.04315048e-02 6.71546906e-02
      5.74466307e-04 -1.07535459e-01 -7.20903426e-02 -7.24829780e-03
      -4.92418697e-03 4.28545028e-02 2.67134532e-02 9.05164927e-02
      6.86564371e-02 2.49310117e-02 -7.79363662e-02 -5.96366338e-02
      -2.07977481e-02 3.97786573e-02 6.21980168e-02 5.60479648e-02
      3.94395217e-02 3.12458910e-02 2.12789550e-02 1.80053967e-03
      -4.41005565e-02 -1.43003222e-02 2.64004301e-02 2.97902338e-02
      3.69738378e-02 -1.89168956e-02 -1.29911173e-02 -2.74715349e-02
      -3.67453769e-02 5.92030734e-02 6.34584129e-02 1.33960843e-02
      5.11413859e-03 -3.70576256e-03 5.55304475e-02 2.50231884e-02
      -3.81839438e-03 -1.72608178e-02 -5.10321483e-02 -4.42939159e-03
      2.85848137e-02 5.10898642e-02 5.68774827e-02 1.77517477e-02
      -3.36391442e-02 -4.31014001e-02 -6.56389222e-02 6.08419720e-03
      3.58491726e-02 3.45218629e-02 3.96906063e-02 4.39836532e-02
      -7.42768794e-02 -4.49485779e-02 -1.36896791e-02 -5.35126813e-02
      2.72724088e-02 4.90438491e-02 4.96524125e-02 -5.57030784e-03
      -4.99694757e-02 -1.53658120e-02 -4.05178592e-02 -2.06744783e-02
      -6.84790984e-02 -2.93314401e-02 -2.48882100e-02 6.71167532e-03
      -1.27845975e-02 -6.80196332e-03 -3.88788097e-02 3.91610945e-03
      1.52722104e-02 -2.31593959e-02 5.00567928e-02 4.35188338e-02
      5.70196994e-02 2.82313433e-02 -2.95797829e-02 2.80424263e-02
      8.20120890e-03 -7.64105842e-03 -2.97960686e-03 -2.15280633e-02
      -4.11082199e-03 2.96059791e-02 4.01898287e-02 5.34321927e-03
      4.50762212e-02 3.56291234e-02 2.71992888e-02 -3.04607395e-02
      -9.37804952e-02 -7.15862066e-02 1.33876642e-03 1.04464649e-03
      2.80805174e-02 7.14575723e-02 2.10587960e-02 -1.24675147e-02
      -1.76558215e-02 -7.58920535e-02 -6.99013919e-02 -1.71634427e-03
      -3.65904309e-02 2.10363716e-02 9.16429535e-02 5.19317426e-02
      1.58662926e-02 1.34884305e-02 -5.13900779e-02 -2.85063051e-02
      1.69543158e-02 2.99754199e-02 6.32607266e-02 6.00535311e-02
      5.95211200e-02 3.29463147e-02 1.51059534e-02 -4.18449230e-02
      -3.20778117e-02 2.23733932e-02 -1.05378423e-02 2.87835244e-02
      5.11232875e-02 -5.17101400e-02 -3.99987772e-02 -2.67956480e-02
      2.84845363e-02 2.28672381e-02 -5.86889870e-03 4.64461371e-03
      2.05472391e-02 -2.48314552e-02 -9.66930017e-02 -6.72910959e-02
      -1.36249289e-02 4.56574038e-02 -2.37662271e-02 -4.64183055e-02
      -4.67782728e-02 -2.11385153e-02 5.84285110e-02 1.99421141e-02
      2.43629478e-02 1.87887568e-02 5.11440597e-02 3.44807133e-02
      4.03882749e-02 1.80678330e-02 2.54308041e-02 -1.51843457e-02
      -4.58116494e-02 -3.80657390e-02 2.41906624e-02 6.14899546e-02
      -5.29764686e-03 -2.26802062e-02 -1.85282063e-02 -2.94693559e-02
      -3.64374742e-02 -5.47054596e-02 -3.84052470e-02 2.30969656e-02
      7.11106583e-02 -2.11545695e-02 -2.88295858e-02 -1.48450024e-02
      -2.42042411e-02 -3.67625207e-02 -6.93119317e-02 -3.20963599e-02
      -1.85409095e-03 2.36312207e-02 -3.67103592e-02 -2.31662709e-02
      -1.75404958e-02 -2.07087062e-02 3.53940241e-02 -1.15618138e-02
      -1.23526645e-03 2.51798797e-02 7.31658265e-02 4.39576223e-04
      -9.84958094e-03 -5.00744209e-03 -2.42950395e-03 1.19658634e-02
      3.01887630e-03 5.41063258e-03 -2.10157856e-02 2.62346808e-02
      -2.39765774e-02 -1.08765066e-03 1.46554038e-02 1.82593043e-03
      -4.82523292e-02 -7.54153579e-02 -4.90046740e-02 1.19669866e-02
      4.30608243e-02 -8.89211986e-03 -3.93753648e-02 -2.18411181e-02
      -1.28735905e-03 -2.29036491e-02 -5.18385582e-02 -2.07580477e-02
      -1.59222577e-02 3.44935358e-02 2.27030367e-02 -1.16286678e-02
      1.73156913e-02 1.32494597e-02 -2.99530588e-02 -6.27796724e-02
      -3.53679135e-02 -1.86445937e-02 3.45074721e-02 2.10278630e-02
      2.04088595e-02 2.38371808e-02 -1.00252628e-02 9.87858884e-03
      -4.24490348e-02 -1.09522417e-02 1.25932395e-02 4.73963767e-02
      5.21717109e-02 5.85019253e-02 3.67294550e-02 1.52501371e-02
      -7.85728544e-03 -2.18211915e-02 -2.74120793e-02 -9.04775932e-02
      -4.35382500e-02 -2.12187115e-02 1.07284328e-02 6.54553548e-02
      4.39075232e-02 4.57134396e-02 1.42272161e-02 -1.21156508e-02
      -6.81103840e-02 -5.07407039e-02 -5.75050861e-02 3.13454121e-02
      3.31756435e-02 4.87369671e-02 3.11576929e-02 -3.29832062e-02
      -1.17611624e-02 -2.68310914e-03 3.21211666e-02 2.00100187e-02
      5.44833802e-02 2.84650866e-02 3.87905464e-02 4.47856449e-02
      1.96909346e-03 -2.59558042e-03 -6.36261776e-02 -6.14442267e-02
      -2.48410143e-02 3.60343978e-02 9.20184329e-03 3.75949703e-02
      5.32798655e-02 1.42355915e-02 5.52134681e-03 -2.19202768e-02
      -1.41094802e-02 -1.84450950e-03 2.56636273e-02 2.06347313e-02
      3.84764299e-02 3.22765000e-02 2.10447013e-02 -9.99641605e-03
      -3.90226468e-02 -3.41717005e-02 4.44016699e-03 3.23949866e-02
      1.02497097e-02 2.99476963e-02 6.95151836e-02 2.49656960e-02
      1.63114518e-02 -3.12919803e-02 -1.43044889e-02 -1.38979394e-03
      2.09761169e-02 -6.12646528e-03 5.62720969e-02 2.24438105e-02
      7.09316460e-03 8.09411344e-04 1.08324243e-02 -4.49544787e-02
      -3.46149467e-02 -1.85137067e-03 -3.12537923e-02 1.52627537e-02
      -1.46431699e-02 2.55980194e-02 1.26724839e-02 -1.76031161e-02
      3.90997417e-02 7.22442344e-02 4.63872254e-02 2.06136517e-03
      -4.23768982e-02 2.05913130e-02 1.46899400e-02 -1.44829098e-02
      -8.81044660e-03 -4.36216369e-02 1.73195433e-02 3.82276475e-02
      3.36162075e-02 1.96364289e-03 -9.21585690e-03 1.25030326e-02
      -4.32434725e-03 -1.50013557e-02 2.38701422e-02 6.93801641e-02
      3.40474732e-02 -6.20012311e-03 -1.67468712e-02 -7.48813571e-03
      3.30648683e-02 7.12521374e-04 -4.12318558e-02 -1.17262397e-02
      3.96231189e-02 2.21155342e-02 5.06340945e-03 -5.35451109e-03
      5.26393205e-02 2.32111849e-02 -9.91310179e-03 -4.14309977e-03
      -4.81285937e-02 -2.01542098e-02 1.66626666e-02 4.08230312e-02
      5.95910177e-02 4.19654809e-02 4.89811078e-02 2.90501472e-02
      8.98164231e-03 -2.77195256e-02 -6.30098954e-02 -4.27955389e-02
      -4.38183825e-03 2.16699652e-02 -2.14494299e-02 1.89351272e-02
      1.27359824e-02 -3.46044116e-02 -5.13056964e-02 1.85995959e-02
      4.19826247e-02 3.81252207e-02 1.81845352e-02 -6.25043642e-03
      5.95639320e-03 1.52817806e-02 -9.13636014e-03 -3.97152230e-02
      -3.02057602e-02 3.41979088e-03 2.85582412e-02 2.48014163e-02
      4.76920716e-02 2.33157743e-02 4.03533280e-02 3.98181416e-02
      4.41951230e-02 -1.40593518e-02 -2.49668062e-02 -1.17984321e-02
      -1.16284303e-02 -4.53388318e-03 -3.22457962e-03 5.24696568e-03
      3.85675468e-02 4.43380177e-02 -4.43159007e-02 -4.48455960e-02
      -1.98592767e-02 -3.56318653e-02 3.88859250e-02 2.02990398e-02
      3.88891995e-02 2.19185390e-02 3.48334834e-02 -3.59390751e-02
      -2.82845646e-02 -2.13716216e-02 -1.51451747e-03 -4.35518958e-02
      6.79287914e-05 3.67559344e-02 4.26367745e-02 5.87841682e-02
      -2.06721835e-02 -4.97927442e-02 -4.57514338e-02 -5.31008579e-02
      -1.35046560e-02 -1.73084792e-02 1.50210029e-02 7.72170071e-03
      3.63524295e-02 7.65843317e-03 -2.56820638e-02 -4.88195568e-03
      4.62867203e-04 -2.12031566e-02 -2.21057404e-02 -2.46560737e-03
      -4.66277450e-02 -1.90516319e-02 -1.78894144e-03 6.77460106e-03
      -8.11324082e-03 -7.90802203e-03 -4.06790935e-02 -2.56533194e-02
      1.13238522e-03 3.46242338e-02 5.47614060e-02 3.37565988e-02
      -2.22626459e-02 -1.96204968e-02 -3.48232090e-02 -9.52941831e-03
      -5.06241631e-04 1.83816850e-02 1.67827830e-02 5.45986295e-02
      7.66992941e-02 3.89863849e-02 3.45135741e-02 -2.28119735e-02
      -7.25163147e-02 -4.75546494e-02 -2.12411191e-02 -3.99732254e-02
      -5.89248352e-03 4.01251428e-02 3.23024392e-02 1.99262742e-02
      2.30265222e-03 -3.57839139e-03 -4.53052521e-02 -1.40468907e-02
      -2.64233556e-02 3.21433209e-02 4.96601462e-02 4.30700853e-02
      5.72150480e-03 1.90256443e-02 -2.29310729e-02 -9.53782815e-03
      3.49804875e-03 -2.41627619e-02 5.60148507e-02 5.47558218e-02
      6.86377287e-02 4.24629040e-02 -3.78265381e-02 -7.53724948e-03
      -2.32261941e-02 -8.90093297e-03 1.44803766e-02 6.46435246e-02
      4.36946936e-02 1.27827693e-02 1.36471596e-02 -1.33063862e-04
      1.64245628e-02 8.22810456e-03 -2.45139748e-02 -2.25381404e-02
      3.54579501e-02 1.10593354e-02 1.60186971e-03 -6.66787289e-03
      1.24326143e-02 1.32757463e-02 -9.43279243e-04 -1.37762576e-02
      -1.02004170e-01 -8.14791396e-02 8.40045139e-03 4.61402722e-03
      -1.80468138e-03 -1.39040069e-03 1.71785790e-03 -1.58998221e-02
      -1.30143231e-02 1.90890972e-02 4.46359031e-02 -1.40724238e-03
      -1.52925719e-02 -1.85818863e-04 -1.58650372e-02 9.32315923e-03
      7.62989046e-03 1.31024281e-02 -8.20799246e-02 -3.79880406e-02
      5.10455891e-02 3.61121483e-02 -7.65933283e-03 -1.64038483e-02
      5.61451800e-02 1.97387449e-02 1.03387265e-02 -7.06453845e-02
      -3.17312963e-02 1.80563089e-02 3.95580102e-03 -1.68296956e-02
      4.00517359e-02 -1.18607664e-02 -1.15881758e-02 1.28860874e-02
      -3.54969315e-02 -5.96160479e-02 -4.82452773e-02 -3.18223387e-02
      -6.70954436e-02 -5.19201672e-03 3.22409570e-02 7.83486012e-03
      2.72384584e-02 -4.24972288e-02 9.15715285e-03 6.52506128e-02
      3.72899175e-02 -1.82943419e-02 9.57654323e-03 -2.26515979e-02
      -5.80510264e-03 6.75797388e-02 1.21104158e-02 1.48650184e-02
      -1.05977664e-02 -1.41983177e-03 -3.28768678e-02 4.70251171e-03
      1.74825154e-02 5.38753765e-03 -1.46124288e-02 -2.00893078e-02
      2.48720422e-02 3.49718258e-02 2.97421068e-02 1.44280388e-03
      -1.75437611e-03 2.94420216e-03 2.03145891e-02 -8.30876920e-03
      -2.46769674e-02 -2.66702846e-02 3.24823856e-02 2.74108083e-04
      -2.16488633e-02 2.84033362e-02 7.77017931e-03 1.58762075e-02
      -1.07043739e-02 -4.85933851e-03 4.19818461e-02 9.46385693e-03
      -1.05305063e-02 -3.67071852e-02 -2.03600600e-02 -2.00435109e-02
      -1.60227006e-03 -1.98855679e-02 -2.99778245e-02 5.16733713e-03
      -1.00173429e-03 -4.70301360e-02 -4.04551402e-02 -3.86066511e-02
      -2.20804121e-02 2.07569972e-02 1.74155813e-02 -4.02475335e-02
      -4.05116752e-02 2.33374424e-02 1.37014315e-02 1.53862564e-02
      1.62371378e-02 4.10531368e-03 3.39679159e-02 1.79293230e-02
      -4.41452628e-03 -1.16120446e-02 1.09879216e-02 2.10135952e-02
      3.07511948e-02 4.29160856e-02 -3.19526792e-02 -6.66644843e-03
      -2.40686815e-03 -4.73352149e-02 -2.47646589e-02 -1.71710756e-02
      -4.47440296e-02 -2.00908259e-02 -1.16044628e-02 2.90084090e-02
      1.48289977e-02 3.69125195e-02 -3.14497873e-02 2.03459412e-02
      -1.84030049e-02 -2.88913436e-02 4.17406335e-02 8.90460983e-02
      3.18156518e-02 2.35710517e-02 5.99647593e-03 -9.77434590e-03
      -2.75527444e-02 -3.20863351e-02 -3.13207544e-02 -3.80184278e-02
      1.82068739e-02 -8.13887175e-03 -3.43709216e-02 -2.12898161e-02
      -6.73216721e-03 2.99830642e-02 -1.57918092e-02 -4.63610999e-02
      -6.13922253e-02 -4.82782163e-02 2.85607800e-02 2.64469031e-02
      1.51402866e-02 -1.98454019e-02 -4.93283868e-02 -2.29423475e-02
      -1.85395330e-02 1.11658368e-02 6.03217706e-02 1.99610088e-02
      6.60832040e-03 -9.14855022e-03 -2.48991176e-02 3.53946649e-02
      2.70618852e-02 3.86871696e-02 2.19914597e-02 4.25279550e-02
      -3.94372866e-02 -4.73150276e-02 -4.48978730e-02 -4.84756846e-03
      4.48523089e-02 1.15613937e-02 -5.18634021e-02 -6.30066693e-02
      -6.08155206e-02 -3.04590520e-02 6.20856462e-03 -2.21613254e-02
      -2.59744073e-03 6.56329468e-02 4.09552529e-02 4.78286948e-03
      -5.24433702e-02 -5.31542078e-02 2.26748940e-02 5.53790703e-02
      -5.13988314e-03 -9.35702212e-03 4.06672098e-02 2.75219791e-02
      4.73864330e-03 -4.65513021e-03 2.89582610e-02 -6.13999227e-03
      7.90233985e-02 3.82523127e-02 4.44669910e-02 4.35881019e-02
      2.19052993e-02 3.61635052e-02 -2.08344753e-03 4.15610662e-03
      -4.15961258e-02 1.04802111e-02 -5.62769501e-03 -1.60105098e-02
      1.67954210e-02 3.20321582e-02 6.06017374e-02 -2.29810756e-02
      -9.20414478e-02 -3.40220332e-02 -2.39104349e-02 -2.93308832e-02
      -1.91794094e-02 1.37512488e-02 -1.85787063e-02 -6.86534960e-03
      1.84252462e-03 -2.58490220e-02 2.48472877e-02 9.04755145e-02
      4.50581163e-02 2.65580639e-02 2.42509339e-02 1.99084207e-02
      5.18436059e-02 2.05803942e-02 -1.19810300e-02 -4.65250481e-03
      1.17267156e-02 1.08940816e-02 2.80389674e-02 2.61154026e-02
      -3.63817089e-03 2.74518095e-02 1.49941659e-02 -4.05956805e-02
      -1.59168541e-02 -1.04960352e-02 1.71985198e-02 -3.77872493e-03
      1.78693756e-02 -2.51167500e-03 -1.70163903e-02 -1.56168528e-02
      -9.81586426e-03 -1.32425819e-02 -3.17535177e-03 4.04387265e-02
      -5.84253818e-02 2.54392670e-03 4.06800359e-02 1.91948172e-02
      -2.00479273e-02 -1.54530322e-02 -2.51903478e-02 3.22507806e-02
      3.13098580e-02 3.06880679e-02 4.48682308e-02 1.11716473e-03
      1.18517224e-02 7.69544533e-03 -1.14029804e-02 -2.63788793e-02
      3.49653326e-02 4.69434261e-02 -5.86421303e-02 -2.36988645e-02
      -1.73113011e-02 -8.67676083e-03 9.81519930e-04 -4.66091931e-02
      -1.00158351e-02 -6.75527146e-03 2.26285979e-02 -5.66540547e-02
      1.11482339e-02 1.97996795e-02 1.24114584e-02 -5.48302778e-04
      -1.75239723e-02 -3.70505489e-02 -3.02641895e-02 1.84163488e-02
      -1.11908419e-02 3.24474797e-02 -3.02355401e-02 1.34098588e-03
      -1.17844595e-02 -3.05676963e-02 -3.32267284e-02 2.27344744e-02
      4.20572795e-02 -4.25335169e-02 1.27775883e-02 1.94448568e-02
      1.73781738e-02 4.60919866e-04 -2.85856090e-02 -2.88660116e-02
      2.65309494e-03 4.11463790e-02 6.62767503e-04 4.15684506e-02
      4.28957380e-02 2.90107410e-02 2.80806655e-03 -5.87956049e-02
      -4.42945734e-02 -1.34557895e-02 -2.06575189e-02 1.66133456e-02
      7.86334127e-02 2.89360676e-02 -3.22033721e-03 -3.33137177e-02
      -3.52106951e-02 -6.61185086e-02 -5.25175519e-02 -2.31631678e-02
      -1.09037356e-02 5.40977791e-02 3.08125671e-02 -2.98880376e-02
      -3.51428911e-02 -4.37301025e-02 -5.03088832e-02 -3.36102769e-02
      -2.25384068e-02 3.22811715e-02 8.44521672e-02 3.52584869e-02
      2.51152478e-02 3.02927531e-02 -6.33996399e-03 -5.28760292e-02
      -7.75091648e-02 -6.80320337e-02 4.81201150e-02 4.16576080e-02
      5.89421317e-02 3.21001299e-02 4.98907492e-02 -8.58739018e-03
      -3.38620879e-02 -4.78764325e-02 -1.51993530e-02 -3.81792337e-02
      2.48007141e-02 -9.52785276e-03 -3.67298238e-02 2.77041737e-02
      -1.44912610e-02 1.15767624e-02 5.13523165e-03 5.27279684e-03
      -4.21821363e-02 1.24558182e-02 -1.20312814e-02 -5.34805618e-02
      3.11854891e-02 2.74825040e-02 -3.86579265e-03 -4.36711088e-02
      -5.97898923e-02 2.57285051e-02 3.74847613e-02 3.08252890e-02
      8.32301285e-03 7.09098577e-02 -1.81518123e-03 5.03409728e-02
      -6.63920131e-04 -2.09302139e-02 1.20072663e-02 4.30346765e-02
      6.13186620e-02 -2.39464198e-03 4.05612886e-02 4.20547202e-02
      1.75670031e-02 1.47902714e-02 -1.23915253e-02 -3.26072983e-02
      -1.84288796e-03 -1.73207242e-02 -4.59534824e-02 -1.81758739e-02
      2.42393706e-02 1.77861359e-02 2.98296381e-02 -1.40181603e-02
      -1.11348126e-02 5.44470213e-02 2.50694305e-02 2.03241315e-02
      7.01777870e-03 -1.59425046e-02 1.87924784e-02 2.38077193e-02
      -2.12045386e-02 4.06461842e-02 5.67250736e-02 6.21623807e-02
      1.66588766e-03 -1.37556046e-02 -6.21722918e-03 -2.84664724e-02
      2.46878527e-02 1.41978888e-02 4.70953993e-02 4.39126268e-02
      6.06299751e-02 7.10264547e-03 -2.75047515e-02 -6.15825690e-02
      8.08818173e-03 1.10335061e-02 -5.62023604e-03 4.25958168e-03
      3.43164876e-02 1.76180620e-02 3.91095964e-04 -8.08448624e-03
      2.73555488e-04 -3.77320661e-03 5.03313206e-02 2.10596789e-02
      1.72050949e-02 2.50084214e-02 -9.82272532e-03 1.63413808e-02
      -1.35914749e-02 1.34753529e-02 -2.79034534e-03 5.12879118e-02
      3.00940815e-02 3.98213714e-02 3.16888653e-02 1.50349382e-02
      -4.68934290e-02 -5.98822199e-02 -3.97423804e-02 -6.72633341e-03
      4.78076376e-02 2.85309963e-02 2.60208696e-02 6.13428559e-03
      3.24971154e-02 8.79011024e-03 -4.67815995e-02 2.14023958e-03
      1.16104241e-02 1.20122898e-02 3.16865416e-03 2.20378116e-03
      1.94254275e-02 7.73798767e-03 4.74285036e-02 1.76861491e-02
      -1.51662603e-02 -1.46869132e-02 -3.22505794e-02 -4.57815751e-02
      -1.51437777e-03 2.17254683e-02 5.23774419e-03 4.06589881e-02
      1.04687186e-02 -4.21835668e-02 -2.00826172e-02 2.63509247e-03
      -1.54332472e-02 4.65713218e-02 5.94295375e-02 4.74005602e-02
      4.35430072e-02 -6.51691388e-03 -3.05805840e-02 -4.65646274e-02
      -3.63897793e-02 -3.79049964e-02 6.21547997e-02 1.30601879e-02
      6.29465654e-02 2.69238856e-02 -1.43206241e-02 -4.37335297e-02
      -1.49525862e-04 2.00131200e-02 -1.35207167e-02 2.93831993e-02
      3.08634434e-02 -2.57368106e-02 6.66220393e-03 1.92092489e-02
      5.90171153e-03 5.01825660e-03 4.11382504e-02 1.72974484e-03
      -3.98844108e-02 -5.09011708e-02 -3.71116661e-02 -3.58669087e-02
      -9.30860348e-04 2.65960093e-03 -2.74733547e-02 2.92185564e-02
      7.26803858e-03 1.21470973e-01 7.04763159e-02 2.35605240e-02
      -1.16586145e-02 -3.24641131e-02 -1.51719311e-02 3.33158150e-02
      4.34193537e-02 1.79270841e-02 -1.50006972e-02 -1.51087726e-02
      1.55168846e-02 -5.04826866e-02 -5.52972779e-02 2.69956514e-03
      -1.21306460e-02 2.17102375e-02 3.56276240e-03 -4.31843363e-02
      2.92421579e-02 -1.81534022e-04 1.29178213e-02 1.03318309e-02
      -1.49005651e-02 -2.13322733e-02 -2.55132583e-03 -2.57610483e-03
      -1.32579505e-02 8.71427730e-02 5.19686751e-02 4.20492738e-02
      1.30783031e-02 -3.30654718e-02 2.40522195e-02 2.05690358e-02
      3.49047547e-03 -1.69915911e-02 2.44141314e-02 9.39106010e-03
      -1.44680478e-02 1.53235334e-03 2.56462814e-03 -1.14692356e-02
      -2.95453835e-02 3.36362212e-03 7.05922097e-02 9.90021303e-02
      6.60367832e-02 4.79586236e-02 3.30378301e-02 -1.40153775e-02</_></support_vectors>
  <decision_functions>
    <_>
      <sv_count>1</sv_count>
      <rho>-1.9136177436697990e+00</rho>
      <alpha>
        1.</alpha>
      <index>
        0</index></_></decision_functions></my_svm>
</opencv_storage>
